<?xml version="1.0"?>
<opencv_storage>
<stage3>
  <maxWeakCount>7</maxWeakCount>
  <stageThreshold>-8.4503626823425293e-01</stageThreshold>
  <weakClassifiers>
    <_>
      <internalNodes>
        0 -1 271109 566900742 789676224 -787823581 1568946692
        -1492631375 143133386 205357 858026060</internalNodes>
      <leafValues>
        -6.1904764175415039e-01 5.8067297935485840e-01</leafValues></_>
    <_>
      <internalNodes>
        0 -1 265867 1026990067 267288575 -1098944897 -1476497585
        -8978446 2129624957 2146827764 -139460761</internalNodes>
      <leafValues>
        -4.9965271353721619e-01 5.9877079725265503e-01</leafValues></_>
    <_>
      <internalNodes>
        0 -1 112417 -842020466 818022672 8446664 1275592878 577983
        -2147409727 -936388412 -1287514040</internalNodes>
      <leafValues>
        -6.1183601617813110e-01 5.2160459756851196e-01</leafValues></_>
    <_>
      <internalNodes>
        0 -1 263062 -506877996 -1862106997 41472 335577153 -2138890169
        -1918752598 67759 1609042671</internalNodes>
      <leafValues>
        -5.9603095054626465e-01 5.6025499105453491e-01</leafValues></_>
    <_>
      <internalNodes>
        0 -1 5144 1036224513 1406177668 369164425 738230275 -255143286
        58818689 -1040004981 -1698325589</internalNodes>
      <leafValues>
        -5.4620999097824097e-01 5.6371855735778809e-01</leafValues></_>
    <_>
      <internalNodes>
        0 -1 268995 163998579 -1848229873 -1073740736 -268107734
        806052202 687538186 -2013191549 1630531851</internalNodes>
      <leafValues>
        -6.4990162849426270e-01 5.2114188671112061e-01</leafValues></_>
    <_>
      <internalNodes>
        0 -1 151400 282231500 -1824110528 -2138898020 1359025044
        947988622 1207963651 -2009035540 73351603</internalNodes>
      <leafValues>
        -7.3043000698089600e-01 5.1977843046188354e-01</leafValues></_></weakClassifiers></stage3>
</opencv_storage>
