<?xml version="1.0"?>
<opencv_storage>
<stage0>
  <maxWeakCount>7</maxWeakCount>
  <stageThreshold>-6.2184715270996094e-01</stageThreshold>
  <weakClassifiers>
    <_>
      <internalNodes>
        0 -1 127512 -26295716 -12965202 -1124432188 -256231706 225236669
        -732438668 -726772108 -1793327147</internalNodes>
      <leafValues>
        -3.7987011671066284e-01 6.4430892467498779e-01</leafValues></_>
    <_>
      <internalNodes>
        0 -1 48889 -1311053 1927962278 -298650846 984231540 1999991894
        -782145852 242710399 1951229775</internalNodes>
      <leafValues>
        -4.7700214385986328e-01 5.1196056604385376e-01</leafValues></_>
    <_>
      <internalNodes>
        0 -1 170305 -1477798658 -297970576 -1055714859 66071 1244512674
        657588256 -1073557048 -1567074936</internalNodes>
      <leafValues>
        -5.4538428783416748e-01 4.7851338982582092e-01</leafValues></_>
    <_>
      <internalNodes>
        0 -1 152113 2044574400 2000752776 -1962637286 822084737
        268978564 1942925442 -790902541 1285988093</internalNodes>
      <leafValues>
        -6.2426865100860596e-01 4.2344486713409424e-01</leafValues></_>
    <_>
      <internalNodes>
        0 -1 72712 -468467475 33686048 -1996455856 675831860 293892394
        134285450 285267365 -683191729</internalNodes>
      <leafValues>
        -5.5287075042724609e-01 5.1416832208633423e-01</leafValues></_>
    <_>
      <internalNodes>
        0 -1 220840 -626165839 359657336 -167903495 1520783084
        -1527020536 -1367378005 353331737 -1082990705</internalNodes>
      <leafValues>
        -4.0371549129486084e-01 7.1679401397705078e-01</leafValues></_>
    <_>
      <internalNodes>
        0 -1 200667 -2012590614 -247176797 1095502354 1430339657
        -1258171510 -1073725302 -1878500664 1551918096</internalNodes>
      <leafValues>
        -6.7577517032623291e-01 4.4256043434143066e-01</leafValues></_></weakClassifiers></stage0>
</opencv_storage>
