<?xml version="1.0"?>
<opencv_storage>
<stage13>
  <maxWeakCount>7</maxWeakCount>
  <stageThreshold>-8.6949712038040161e-01</stageThreshold>
  <weakClassifiers>
    <_>
      <internalNodes>
        0 -1 18669 92551442 178376865 -917319597 1812886673 -1878910967
        -511704957 1107530082 566519382</internalNodes>
      <leafValues>
        -6.6836732625961304e-01 5.4801326990127563e-01</leafValues></_>
    <_>
      <internalNodes>
        0 -1 43222 -1366154922 -930021308 -719252735 520819533
        -893148935 -167018312 -486315407 141207863</internalNodes>
      <leafValues>
        -6.4418822526931763e-01 4.4351461529731750e-01</leafValues></_>
    <_>
      <internalNodes>
        0 -1 12052 -1672656903 -1496416388 -268435463 -276877462 -65538
        -1897046019 -1141043471 -85636113</internalNodes>
      <leafValues>
        -4.7174906730651855e-01 6.2333220243453979e-01</leafValues></_>
    <_>
      <internalNodes>
        0 -1 6300 1796508613 -616390590 -2146238384 -732331617 537085994
        1216905345 -1743728627 175327948</internalNodes>
      <leafValues>
        -6.4719080924987793e-01 4.7806364297866821e-01</leafValues></_>
    <_>
      <internalNodes>
        0 -1 270599 -768926562 -1073668079 -2143223670 1543962652
        1343035836 -930504688 13691569 -1928606784</internalNodes>
      <leafValues>
        -6.4642041921615601e-01 4.7281518578529358e-01</leafValues></_>
    <_>
      <internalNodes>
        0 -1 260667 -976175440 1309196317 -737393662 -641494879
        1426683317 134799368 -2146860516 -24607646</internalNodes>
      <leafValues>
        -6.0851114988327026e-01 5.5355775356292725e-01</leafValues></_>
    <_>
      <internalNodes>
        0 -1 81280 -669620803 -1056890878 335786003 1664418961
        1480657319 562595841 -796372565 904889210</internalNodes>
      <leafValues>
        -5.8521443605422974e-01 5.9659415483474731e-01</leafValues></_></weakClassifiers></stage13>
</opencv_storage>
