<?xml version="1.0"?>
<opencv_storage>
<stage7>
  <maxWeakCount>6</maxWeakCount>
  <stageThreshold>-1.3670930862426758e+00</stageThreshold>
  <weakClassifiers>
    <_>
      <internalNodes>
        0 -1 5307 1611800700 -1047571442 1812702223 -1495953390
        558457282 727032960 67281190 558162962</internalNodes>
      <leafValues>
        -7.4850296974182129e-01 5.1342809200286865e-01</leafValues></_>
    <_>
      <internalNodes>
        0 -1 20955 -1252129355 402702355 1208275143 1820369553
        1275717939 -341803007 -518868021 -33211946</internalNodes>
      <leafValues>
        -5.3759801387786865e-01 5.0911390781402588e-01</leafValues></_>
    <_>
      <internalNodes>
        0 -1 60432 -1542417657 457212033 1636155996 94552214 -2138652173
        271384584 1103456971 461957003</internalNodes>
      <leafValues>
        -6.4980798959732056e-01 4.4924506545066833e-01</leafValues></_>
    <_>
      <internalNodes>
        0 -1 268741 41740 -1726808055 822184282 -1223849980 838896655
        134283944 -1036855263 563815077</internalNodes>
      <leafValues>
        -7.4463188648223877e-01 4.2124599218368530e-01</leafValues></_>
    <_>
      <internalNodes>
        0 -1 250963 -866926018 -2113888253 1208289543 268493318
        165757808 1191706762 1610650115 925884558</internalNodes>
      <leafValues>
        -5.9423446655273438e-01 5.0767427682876587e-01</leafValues></_>
    <_>
      <internalNodes>
        0 -1 16035 1479396347 -1125897221 -1358955841 1337929463
        1039069183 770637822 2147385074 -8614198</internalNodes>
      <leafValues>
        -5.2012676000595093e-01 6.3530486822128296e-01</leafValues></_></weakClassifiers></stage7>
</opencv_storage>
