<?xml version="1.0"?>
<opencv_storage>
<stage4>
  <maxWeakCount>7</maxWeakCount>
  <stageThreshold>-7.9735511541366577e-01</stageThreshold>
  <weakClassifiers>
    <_>
      <internalNodes>
        0 -1 269539 566252608 1524400258 4376642 -996405054 1655255434
        1914806304 -91739580 539383325</internalNodes>
      <leafValues>
        -8.5209006071090698e-01 5.1590383052825928e-01</leafValues></_>
    <_>
      <internalNodes>
        0 -1 1817 -1978469249 -1060306962 1418390271 -387780445
        534673149 -572655753 861398117 -34246537</internalNodes>
      <leafValues>
        -4.0467846393585205e-01 8.0928665399551392e-01</leafValues></_>
    <_>
      <internalNodes>
        0 -1 20333 -1343770657 -1096896525 1056799726 615444206
        -151126052 2012217343 2113929214 -1518557337</internalNodes>
      <leafValues>
        -5.3679227828979492e-01 5.8588266372680664e-01</leafValues></_>
    <_>
      <internalNodes>
        0 -1 4972 996293693 1058967875 1159135685 -1425342451 680116651
        715853825 16781633 1082164954</internalNodes>
      <leafValues>
        -6.5770149230957031e-01 4.9086812138557434e-01</leafValues></_>
    <_>
      <internalNodes>
        0 -1 9522 679592109 290820369 -753926144 -1979611647 -879125861
        511770824 1480818968 1267106307</internalNodes>
      <leafValues>
        -6.4134860038757324e-01 5.0975102186203003e-01</leafValues></_>
    <_>
      <internalNodes>
        0 -1 253163 -439881606 -1744240636 -1878945263 25256849 8489360
        -1307934720 1073742369 1246886078</internalNodes>
      <leafValues>
        -5.7999521493911743e-01 6.3900405168533325e-01</leafValues></_>
    <_>
      <internalNodes>
        0 -1 259080 -1072135246 293863426 -1073708833 -335433469
        -2009032115 -1610588158 -896349032 442839048</internalNodes>
      <leafValues>
        -5.6689763069152832e-01 6.0147643089294434e-01</leafValues></_></weakClassifiers></stage4>
</opencv_storage>
