<?xml version="1.0"?>
<opencv_storage>
<stage2>
  <maxWeakCount>7</maxWeakCount>
  <stageThreshold>-8.4879046678543091e-01</stageThreshold>
  <weakClassifiers>
    <_>
      <internalNodes>
        0 -1 1327 -1365203590 -1429978937 1140871554 -1362965849
        1627461938 428998659 16898186 1808148224</internalNodes>
      <leafValues>
        -7.3295456171035767e-01 5.2724361419677734e-01</leafValues></_>
    <_>
      <internalNodes>
        0 -1 147308 -2138122072 2013974528 -1004781568 1130102789
        -920020248 -385343357 -2143201272 -988175605</internalNodes>
      <leafValues>
        -5.8013451099395752e-01 4.8798605799674988e-01</leafValues></_>
    <_>
      <internalNodes>
        0 -1 143049 -855515646 -754908960 671127762 470679694 575110
        -2030042559 1233650199 -2029905661</internalNodes>
      <leafValues>
        -5.6422692537307739e-01 5.6975752115249634e-01</leafValues></_>
    <_>
      <internalNodes>
        0 -1 12060 278235860 -1483464315 269598779 789905491 1243667122
        1208485891 1082263572 -218735731</internalNodes>
      <leafValues>
        -6.7846482992172241e-01 4.1969302296638489e-01</leafValues></_>
    <_>
      <internalNodes>
        0 -1 48847 1813233669 1210220802 -922679279 5002371 -385468376
        -2147383295 -603976672 -164642177</internalNodes>
      <leafValues>
        -5.6172728538513184e-01 5.4622578620910645e-01</leafValues></_>
    <_>
      <internalNodes>
        0 -1 258769 -93853321 -538644697 -33935629 1051667636
        -1419899666 1576402935 -1359433985 -1895833229</internalNodes>
      <leafValues>
        -4.5787003636360168e-01 7.3194551467895508e-01</leafValues></_>
    <_>
      <internalNodes>
        0 -1 28067 -993717970 848920835 1073841425 427872386 453584986
        -268040063 -1979411336 300220702</internalNodes>
      <leafValues>
        -7.2433888912200928e-01 4.9444538354873657e-01</leafValues></_></weakClassifiers></stage2>
</opencv_storage>
